<?xml version="1.0"?>
<opencv_storage>
<cascade>
  <stageType>BOOST</stageType>
  <featureType>HAAR</featureType>
  <height>24</height>
  <width>24</width>
  <stageParams>
    <boostType>GAB</boostType>
    <minHitRate>9.9500000476837158e-01</minHitRate>
    <maxFalseAlarm>5.0000000000000000e-01</maxFalseAlarm>
    <weightTrimRate>9.4999999999999996e-01</weightTrimRate>
    <maxDepth>1</maxDepth>
    <maxWeakCount>100</maxWeakCount></stageParams>
  <featureParams>
    <maxCatCount>0</maxCatCount>
    <featSize>1</featSize>
    <mode>BASIC</mode></featureParams>
  <stageNum>1</stageNum>
  <stages>
    <!-- stage 0 -->
    <_>
      <maxWeakCount>15</maxWeakCount>
      <stageThreshold>-1.5265105962753296e+00</stageThreshold>
      <weakClassifiers>
        <_>
          <internalNodes>
            0 -1 2 1.1470109969377518e-01</internalNodes>
          <leafValues>
            -5.4435992240905762e-01 3.8937091827392578e-01</leafValues></_>
        <_>
          <internalNodes>
            0 -1 3 4.0162775665521622e-02</internalNodes>
          <leafValues>
            -3.0931931734085083e-01 6.0007596015930176e-01</leafValues></_>
        <_>
          <internalNodes>
            0 -1 1 2.0093074999749660e-03</internalNodes>
          <leafValues>
            -3.0401524901390076e-01 3.9782804250717163e-01</leafValues></_>
        <_>
          <internalNodes>
            0 -1 5 -3.4795440733432770e-02</internalNodes>
          <leafValues>
            6.3233631849288940e-01 -1.6501548886299133e-01</leafValues></_>
        <_>
          <internalNodes>
            0 -1 14 -1.6197509830817580e-04</internalNodes>
          <leafValues>
            3.6787390708923340e-01 -2.2346678376197815e-01</leafValues></_>
        <_>
          <internalNodes>
            0 -1 10 -7.1086441166698933e-03</internalNodes>
          <leafValues>
            -8.3366465568542480e-01 8.3329416811466217e-02</leafValues></_>
        <_>
          <internalNodes>
            0 -1 11 1.6933854203671217e-03</internalNodes>
          <leafValues>
            1.0755450278520584e-01 -7.6794570684432983e-01</leafValues></_>
        <_>
          <internalNodes>
            0 -1 7 -1.7419067444279790e-04</internalNodes>
          <leafValues>
            2.6962015032768250e-01 -2.8039607405662537e-01</leafValues></_>
        <_>
          <internalNodes>
            0 -1 12 1.2315455824136734e-03</internalNodes>
          <leafValues>
            1.0147950798273087e-01 -7.4758118391036987e-01</leafValues></_>
        <_>
          <internalNodes>
            0 -1 13 1.0898883920162916e-03</internalNodes>
          <leafValues>
            -2.3060956597328186e-01 3.3673775196075439e-01</leafValues></_>
        <_>
          <internalNodes>
            0 -1 6 -9.0647855540737510e-04</internalNodes>
          <leafValues>
            -8.9434486627578735e-01 5.7216923683881760e-02</leafValues></_>
        <_>
          <internalNodes>
            0 -1 0 -8.3822775632143021e-03</internalNodes>
          <leafValues>
            3.7006518244743347e-01 -1.8153955042362213e-01</leafValues></_>
        <_>
          <internalNodes>
            0 -1 8 -3.0173445120453835e-02</internalNodes>
          <leafValues>
            3.6556342244148254e-01 -1.5906971693038940e-01</leafValues></_>
        <_>
          <internalNodes>
            0 -1 9 2.9851954430341721e-02</internalNodes>
          <leafValues>
            -1.5465781092643738e-01 4.0813520550727844e-01</leafValues></_>
        <_>
          <internalNodes>
            0 -1 4 6.7784329876303673e-03</internalNodes>
          <leafValues>
            1.2475383281707764e-01 -7.0044523477554321e-01</leafValues></_></weakClassifiers></_></stages>
  <features>
    <_>
      <rects>
        <_>
          0 5 12 5 -1.</_>
        <_>
          4 5 4 5 3.</_></rects>
      <tilted>0</tilted></_>
    <_>
      <rects>
        <_>
          0 6 6 3 -1.</_>
        <_>
          3 6 3 3 2.</_></rects>
      <tilted>0</tilted></_>
    <_>
      <rects>
        <_>
          0 6 24 18 -1.</_>
        <_>
          0 12 24 6 3.</_></rects>
      <tilted>0</tilted></_>
    <_>
      <rects>
        <_>
          5 0 16 9 -1.</_>
        <_>
          5 3 16 3 3.</_></rects>
      <tilted>0</tilted></_>
    <_>
      <rects>
        <_>
          8 0 3 23 -1.</_>
        <_>
          9 0 1 23 3.</_></rects>
      <tilted>0</tilted></_>
    <_>
      <rects>
        <_>
          8 0 10 6 -1.</_>
        <_>
          8 3 10 3 2.</_></rects>
      <tilted>0</tilted></_>
    <_>
      <rects>
        <_>
          8 2 3 1 -1.</_>
        <_>
          9 2 1 1 3.</_></rects>
      <tilted>0</tilted></_>
    <_>
      <rects>
        <_>
          8 20 1 4 -1.</_>
        <_>
          8 22 1 2 2.</_></rects>
      <tilted>0</tilted></_>
    <_>
      <rects>
        <_>
          9 2 9 12 -1.</_>
        <_>
          9 6 9 4 3.</_></rects>
      <tilted>0</tilted></_>
    <_>
      <rects>
        <_>
          10 0 6 15 -1.</_>
        <_>
          10 5 6 5 3.</_></rects>
      <tilted>0</tilted></_>
    <_>
      <rects>
        <_>
          11 0 3 24 -1.</_>
        <_>
          12 0 1 24 3.</_></rects>
      <tilted>0</tilted></_>
    <_>
      <rects>
        <_>
          11 1 3 4 -1.</_>
        <_>
          12 1 1 4 3.</_></rects>
      <tilted>0</tilted></_>
    <_>
      <rects>
        <_>
          11 22 3 2 -1.</_>
        <_>
          12 22 1 2 3.</_></rects>
      <tilted>0</tilted></_>
    <_>
      <rects>
        <_>
          14 5 10 2 -1.</_>
        <_>
          14 6 10 1 2.</_></rects>
      <tilted>0</tilted></_>
    <_>
      <rects>
        <_>
          21 5 2 3 -1.</_>
        <_>
          22 5 1 3 2.</_></rects>
      <tilted>0</tilted></_></features></cascade>
</opencv_storage>
