<?xml version="1.0"?>
<opencv_storage>
<cascade>
  <stageType>BOOST</stageType>
  <featureType>HAAR</featureType>
  <height>50</height>
  <width>50</width>
  <stageParams>
    <boostType>LB</boostType>
    <minHitRate>9.9900001287460327e-01</minHitRate>
    <maxFalseAlarm>5.0000000000000000e-01</maxFalseAlarm>
    <weightTrimRate>9.4999999999999996e-01</weightTrimRate>
    <maxDepth>1</maxDepth>
    <maxWeakCount>100</maxWeakCount></stageParams>
  <featureParams>
    <maxCatCount>0</maxCatCount>
    <featSize>1</featSize>
    <mode>BASIC</mode></featureParams>
  <stageNum>9</stageNum>
  <stages>
    <!-- stage 0 -->
    <_>
      <maxWeakCount>1</maxWeakCount>
      <stageThreshold>2.</stageThreshold>
      <weakClassifiers>
        <_>
          <internalNodes>
            0 -1 0 -6.1344006098806858e-05</internalNodes>
          <leafValues>
            -2. 2.</leafValues></_></weakClassifiers></_>
    <!-- stage 1 -->
    <_>
      <maxWeakCount>1</maxWeakCount>
      <stageThreshold>2.</stageThreshold>
      <weakClassifiers>
        <_>
          <internalNodes>
            0 -1 1 3.7342801690101624e-02</internalNodes>
          <leafValues>
            -2. 2.</leafValues></_></weakClassifiers></_>
    <!-- stage 2 -->
    <_>
      <maxWeakCount>1</maxWeakCount>
      <stageThreshold>2.</stageThreshold>
      <weakClassifiers>
        <_>
          <internalNodes>
            0 -1 2 3.8780890405178070e-02</internalNodes>
          <leafValues>
            -2. 2.</leafValues></_></weakClassifiers></_>
    <!-- stage 3 -->
    <_>
      <maxWeakCount>1</maxWeakCount>
      <stageThreshold>2.</stageThreshold>
      <weakClassifiers>
        <_>
          <internalNodes>
            0 -1 6 -5.3452802821993828e-03</internalNodes>
          <leafValues>
            2. -2.</leafValues></_></weakClassifiers></_>
    <!-- stage 4 -->
    <_>
      <maxWeakCount>1</maxWeakCount>
      <stageThreshold>1.6363636255264282e+00</stageThreshold>
      <weakClassifiers>
        <_>
          <internalNodes>
            0 -1 5 -1.4247788931243122e-04</internalNodes>
          <leafValues>
            1.6363636255264282e+00 -2.</leafValues></_></weakClassifiers></_>
    <!-- stage 5 -->
    <_>
      <maxWeakCount>1</maxWeakCount>
      <stageThreshold>1.6363636255264282e+00</stageThreshold>
      <weakClassifiers>
        <_>
          <internalNodes>
            0 -1 4 7.0224050432443619e-04</internalNodes>
          <leafValues>
            -2. 1.6363636255264282e+00</leafValues></_></weakClassifiers></_>
    <!-- stage 6 -->
    <_>
      <maxWeakCount>1</maxWeakCount>
      <stageThreshold>1.6363636255264282e+00</stageThreshold>
      <weakClassifiers>
        <_>
          <internalNodes>
            0 -1 8 -1.3756129192188382e-03</internalNodes>
          <leafValues>
            1.6363636255264282e+00 -2.</leafValues></_></weakClassifiers></_>
    <!-- stage 7 -->
    <_>
      <maxWeakCount>1</maxWeakCount>
      <stageThreshold>1.3333333730697632e+00</stageThreshold>
      <weakClassifiers>
        <_>
          <internalNodes>
            0 -1 3 5.8281165547668934e-04</internalNodes>
          <leafValues>
            -2. 1.3333333730697632e+00</leafValues></_></weakClassifiers></_>
    <!-- stage 8 -->
    <_>
      <maxWeakCount>1</maxWeakCount>
      <stageThreshold>1.6363636255264282e+00</stageThreshold>
      <weakClassifiers>
        <_>
          <internalNodes>
            0 -1 7 -1.7984819132834673e-03</internalNodes>
          <leafValues>
            1.6363636255264282e+00 -2.</leafValues></_></weakClassifiers></_></stages>
  <features>
    <_>
      <rects>
        <_>
          0 0 4 30 -1.</_>
        <_>
          2 0 2 30 2.</_></rects>
      <tilted>0</tilted></_>
    <_>
      <rects>
        <_>
          0 1 15 36 -1.</_>
        <_>
          0 19 15 18 2.</_></rects>
      <tilted>0</tilted></_>
    <_>
      <rects>
        <_>
          0 18 30 16 -1.</_>
        <_>
          10 18 10 16 3.</_></rects>
      <tilted>0</tilted></_>
    <_>
      <rects>
        <_>
          5 1 6 12 -1.</_>
        <_>
          5 1 3 6 2.</_>
        <_>
          8 7 3 6 2.</_></rects>
      <tilted>0</tilted></_>
    <_>
      <rects>
        <_>
          12 2 2 40 -1.</_>
        <_>
          13 2 1 40 2.</_></rects>
      <tilted>0</tilted></_>
    <_>
      <rects>
        <_>
          12 39 1 4 -1.</_>
        <_>
          12 41 1 2 2.</_></rects>
      <tilted>0</tilted></_>
    <_>
      <rects>
        <_>
          12 44 22 6 -1.</_>
        <_>
          12 47 22 3 2.</_></rects>
      <tilted>0</tilted></_>
    <_>
      <rects>
        <_>
          23 23 13 16 -1.</_>
        <_>
          23 31 13 8 2.</_></rects>
      <tilted>0</tilted></_>
    <_>
      <rects>
        <_>
          34 2 4 19 -1.</_>
        <_>
          36 2 2 19 2.</_></rects>
      <tilted>0</tilted></_></features></cascade>
</opencv_storage>
