<?xml version="1.0"?>
<opencv_storage>
<cascade>
  <stageType>BOOST</stageType>
  <featureType>HAAR</featureType>
  <height>50</height>
  <width>50</width>
  <stageParams>
    <boostType>GAB</boostType>
    <minHitRate>9.9500000476837158e-01</minHitRate>
    <maxFalseAlarm>5.0000000000000000e-01</maxFalseAlarm>
    <weightTrimRate>9.4999999999999996e-01</weightTrimRate>
    <maxDepth>1</maxDepth>
    <maxWeakCount>100</maxWeakCount></stageParams>
  <featureParams>
    <maxCatCount>0</maxCatCount>
    <featSize>1</featSize>
    <mode>BASIC</mode></featureParams>
  <stageNum>14</stageNum>
  <stages>
    <!-- stage 0 -->
    <_>
      <maxWeakCount>1</maxWeakCount>
      <stageThreshold>1.</stageThreshold>
      <weakClassifiers>
        <_>
          <internalNodes>
            0 -1 0 2.4516418576240540e-02</internalNodes>
          <leafValues>
            -1. 1.</leafValues></_></weakClassifiers></_>
    <!-- stage 1 -->
    <_>
      <maxWeakCount>1</maxWeakCount>
      <stageThreshold>1.</stageThreshold>
      <weakClassifiers>
        <_>
          <internalNodes>
            0 -1 3 -5.5769239552319050e-03</internalNodes>
          <leafValues>
            1. -1.</leafValues></_></weakClassifiers></_>
    <!-- stage 2 -->
    <_>
      <maxWeakCount>1</maxWeakCount>
      <stageThreshold>1.</stageThreshold>
      <weakClassifiers>
        <_>
          <internalNodes>
            0 -1 12 -1.3688080071005970e-04</internalNodes>
          <leafValues>
            -1. 1.</leafValues></_></weakClassifiers></_>
    <!-- stage 3 -->
    <_>
      <maxWeakCount>1</maxWeakCount>
      <stageThreshold>1.</stageThreshold>
      <weakClassifiers>
        <_>
          <internalNodes>
            0 -1 5 -1.3917895266786218e-03</internalNodes>
          <leafValues>
            1. -1.</leafValues></_></weakClassifiers></_>
    <!-- stage 4 -->
    <_>
      <maxWeakCount>1</maxWeakCount>
      <stageThreshold>1.</stageThreshold>
      <weakClassifiers>
        <_>
          <internalNodes>
            0 -1 4 2.7400800026953220e-03</internalNodes>
          <leafValues>
            -1. 1.</leafValues></_></weakClassifiers></_>
    <!-- stage 5 -->
    <_>
      <maxWeakCount>2</maxWeakCount>
      <stageThreshold>1.5391765534877777e-01</stageThreshold>
      <weakClassifiers>
        <_>
          <internalNodes>
            0 -1 13 1.6480440535815433e-05</internalNodes>
          <leafValues>
            1. -8.1818181276321411e-01</leafValues></_>
        <_>
          <internalNodes>
            0 -1 15 9.0421053755562752e-06</internalNodes>
          <leafValues>
            -8.4608232975006104e-01 1.</leafValues></_></weakClassifiers></_>
    <!-- stage 6 -->
    <_>
      <maxWeakCount>2</maxWeakCount>
      <stageThreshold>1.5391765534877777e-01</stageThreshold>
      <weakClassifiers>
        <_>
          <internalNodes>
            0 -1 6 1.8200265913037583e-05</internalNodes>
          <leafValues>
            -8.1818181276321411e-01 1.</leafValues></_>
        <_>
          <internalNodes>
            0 -1 10 -4.3879910372197628e-03</internalNodes>
          <leafValues>
            1. -8.4608232975006104e-01</leafValues></_></weakClassifiers></_>
    <!-- stage 7 -->
    <_>
      <maxWeakCount>1</maxWeakCount>
      <stageThreshold>1.</stageThreshold>
      <weakClassifiers>
        <_>
          <internalNodes>
            0 -1 2 2.3749303072690964e-02</internalNodes>
          <leafValues>
            1. -1.</leafValues></_></weakClassifiers></_>
    <!-- stage 8 -->
    <_>
      <maxWeakCount>2</maxWeakCount>
      <stageThreshold>1.5391765534877777e-01</stageThreshold>
      <weakClassifiers>
        <_>
          <internalNodes>
            0 -1 16 -3.8921125815249979e-04</internalNodes>
          <leafValues>
            -8.1818181276321411e-01 1.</leafValues></_>
        <_>
          <internalNodes>
            0 -1 18 -1.9094826711807400e-04</internalNodes>
          <leafValues>
            1. -8.4608232975006104e-01</leafValues></_></weakClassifiers></_>
    <!-- stage 9 -->
    <_>
      <maxWeakCount>2</maxWeakCount>
      <stageThreshold>1.5391765534877777e-01</stageThreshold>
      <weakClassifiers>
        <_>
          <internalNodes>
            0 -1 1 9.7422525286674500e-03</internalNodes>
          <leafValues>
            -8.1818181276321411e-01 1.</leafValues></_>
        <_>
          <internalNodes>
            0 -1 7 1.0394756100140512e-04</internalNodes>
          <leafValues>
            -8.4608232975006104e-01 1.</leafValues></_></weakClassifiers></_>
    <!-- stage 10 -->
    <_>
      <maxWeakCount>2</maxWeakCount>
      <stageThreshold>1.5391765534877777e-01</stageThreshold>
      <weakClassifiers>
        <_>
          <internalNodes>
            0 -1 8 -5.0718849524855614e-03</internalNodes>
          <leafValues>
            1. -8.1818181276321411e-01</leafValues></_>
        <_>
          <internalNodes>
            0 -1 9 -5.6472513824701309e-03</internalNodes>
          <leafValues>
            1. -8.4608232975006104e-01</leafValues></_></weakClassifiers></_>
    <!-- stage 11 -->
    <_>
      <maxWeakCount>1</maxWeakCount>
      <stageThreshold>9.0476191043853760e-01</stageThreshold>
      <weakClassifiers>
        <_>
          <internalNodes>
            0 -1 19 4.6094970457488671e-05</internalNodes>
          <leafValues>
            9.0476191043853760e-01 -1.</leafValues></_></weakClassifiers></_>
    <!-- stage 12 -->
    <_>
      <maxWeakCount>2</maxWeakCount>
      <stageThreshold>1.5391765534877777e-01</stageThreshold>
      <weakClassifiers>
        <_>
          <internalNodes>
            0 -1 11 -1.6727307811379433e-03</internalNodes>
          <leafValues>
            1. -8.1818181276321411e-01</leafValues></_>
        <_>
          <internalNodes>
            0 -1 17 -2.5555142201483250e-04</internalNodes>
          <leafValues>
            -8.4608232975006104e-01 1.</leafValues></_></weakClassifiers></_>
    <!-- stage 13 -->
    <_>
      <maxWeakCount>1</maxWeakCount>
      <stageThreshold>1.</stageThreshold>
      <weakClassifiers>
        <_>
          <internalNodes>
            0 -1 14 1.0331046360079199e-04</internalNodes>
          <leafValues>
            1. -1.</leafValues></_></weakClassifiers></_></stages>
  <features>
    <_>
      <rects>
        <_>
          0 3 24 34 -1.</_>
        <_>
          0 20 24 17 2.</_></rects>
      <tilted>0</tilted></_>
    <_>
      <rects>
        <_>
          0 20 32 15 -1.</_>
        <_>
          0 25 32 5 3.</_></rects>
      <tilted>0</tilted></_>
    <_>
      <rects>
        <_>
          0 25 45 18 -1.</_>
        <_>
          0 31 45 6 3.</_></rects>
      <tilted>0</tilted></_>
    <_>
      <rects>
        <_>
          0 28 18 20 -1.</_>
        <_>
          0 38 18 10 2.</_></rects>
      <tilted>0</tilted></_>
    <_>
      <rects>
        <_>
          0 34 39 1 -1.</_>
        <_>
          13 34 13 1 3.</_></rects>
      <tilted>0</tilted></_>
    <_>
      <rects>
        <_>
          0 38 20 12 -1.</_>
        <_>
          0 38 10 6 2.</_>
        <_>
          10 44 10 6 2.</_></rects>
      <tilted>0</tilted></_>
    <_>
      <rects>
        <_>
          2 10 4 7 -1.</_>
        <_>
          4 10 2 7 2.</_></rects>
      <tilted>0</tilted></_>
    <_>
      <rects>
        <_>
          2 31 8 1 -1.</_>
        <_>
          6 31 4 1 2.</_></rects>
      <tilted>0</tilted></_>
    <_>
      <rects>
        <_>
          5 30 12 12 -1.</_>
        <_>
          5 36 12 6 2.</_></rects>
      <tilted>0</tilted></_>
    <_>
      <rects>
        <_>
          5 31 11 12 -1.</_>
        <_>
          5 37 11 6 2.</_></rects>
      <tilted>0</tilted></_>
    <_>
      <rects>
        <_>
          9 45 34 4 -1.</_>
        <_>
          9 47 34 2 2.</_></rects>
      <tilted>0</tilted></_>
    <_>
      <rects>
        <_>
          10 46 34 2 -1.</_>
        <_>
          10 47 34 1 2.</_></rects>
      <tilted>0</tilted></_>
    <_>
      <rects>
        <_>
          11 35 6 1 -1.</_>
        <_>
          13 35 2 1 3.</_></rects>
      <tilted>0</tilted></_>
    <_>
      <rects>
        <_>
          13 31 2 2 -1.</_>
        <_>
          13 31 1 1 2.</_>
        <_>
          14 32 1 1 2.</_></rects>
      <tilted>0</tilted></_>
    <_>
      <rects>
        <_>
          15 48 14 2 -1.</_>
        <_>
          15 48 7 1 2.</_>
        <_>
          22 49 7 1 2.</_></rects>
      <tilted>0</tilted></_>
    <_>
      <rects>
        <_>
          24 39 6 2 -1.</_>
        <_>
          24 39 3 1 2.</_>
        <_>
          27 40 3 1 2.</_></rects>
      <tilted>0</tilted></_>
    <_>
      <rects>
        <_>
          26 11 3 22 -1.</_>
        <_>
          27 11 1 22 3.</_></rects>
      <tilted>0</tilted></_>
    <_>
      <rects>
        <_>
          29 5 3 28 -1.</_>
        <_>
          30 5 1 28 3.</_></rects>
      <tilted>0</tilted></_>
    <_>
      <rects>
        <_>
          34 0 6 17 -1.</_>
        <_>
          37 0 3 17 2.</_></rects>
      <tilted>0</tilted></_>
    <_>
      <rects>
        <_>
          48 31 2 6 -1.</_>
        <_>
          49 31 1 6 2.</_></rects>
      <tilted>0</tilted></_></features></cascade>
</opencv_storage>
