<?xml version="1.0"?>
<opencv_storage>
<cascade>
  <stageType>BOOST</stageType>
  <featureType>LBP</featureType>
  <height>50</height>
  <width>50</width>
  <stageParams>
    <boostType>LB</boostType>
    <minHitRate>9.9900001287460327e-01</minHitRate>
    <maxFalseAlarm>5.0000000000000000e-01</maxFalseAlarm>
    <weightTrimRate>9.4999999999999996e-01</weightTrimRate>
    <maxDepth>1</maxDepth>
    <maxWeakCount>100</maxWeakCount></stageParams>
  <featureParams>
    <maxCatCount>256</maxCatCount>
    <featSize>1</featSize></featureParams>
  <stageNum>14</stageNum>
  <stages>
    <!-- stage 0 -->
    <_>
      <maxWeakCount>1</maxWeakCount>
      <stageThreshold>2.</stageThreshold>
      <weakClassifiers>
        <_>
          <internalNodes>
            0 -1 2 606274 0 0 0 0 0 130 8388747</internalNodes>
          <leafValues>
            -2. 2.</leafValues></_></weakClassifiers></_>
    <!-- stage 1 -->
    <_>
      <maxWeakCount>1</maxWeakCount>
      <stageThreshold>2.</stageThreshold>
      <weakClassifiers>
        <_>
          <internalNodes>
            0 -1 3 1116438536 268500992 0 0 0 128 1073741828 134455296</internalNodes>
          <leafValues>
            -2. 2.</leafValues></_></weakClassifiers></_>
    <!-- stage 2 -->
    <_>
      <maxWeakCount>1</maxWeakCount>
      <stageThreshold>2.</stageThreshold>
      <weakClassifiers>
        <_>
          <internalNodes>
            0 -1 9 1 16842752 0 537001985 134217856 8388608 134316195
            8192</internalNodes>
          <leafValues>
            -2. 2.</leafValues></_></weakClassifiers></_>
    <!-- stage 3 -->
    <_>
      <maxWeakCount>1</maxWeakCount>
      <stageThreshold>2.</stageThreshold>
      <weakClassifiers>
        <_>
          <internalNodes>
            0 -1 1 81938 8388624 16384 65536 128 8388608 0 1761642752</internalNodes>
          <leafValues>
            -2. 2.</leafValues></_></weakClassifiers></_>
    <!-- stage 4 -->
    <_>
      <maxWeakCount>1</maxWeakCount>
      <stageThreshold>2.</stageThreshold>
      <weakClassifiers>
        <_>
          <internalNodes>
            0 -1 0 0 0 0 1073741824 0 0 0 -2146959360</internalNodes>
          <leafValues>
            -2. 2.</leafValues></_></weakClassifiers></_>
    <!-- stage 5 -->
    <_>
      <maxWeakCount>1</maxWeakCount>
      <stageThreshold>2.</stageThreshold>
      <weakClassifiers>
        <_>
          <internalNodes>
            0 -1 10 8404995 -2147155968 0 0 2 0 0 -2063564798</internalNodes>
          <leafValues>
            -2. 2.</leafValues></_></weakClassifiers></_>
    <!-- stage 6 -->
    <_>
      <maxWeakCount>1</maxWeakCount>
      <stageThreshold>2.</stageThreshold>
      <weakClassifiers>
        <_>
          <internalNodes>
            0 -1 5 -805306368 1074790400 0 16777217 0 -2139094910 136
            -670564352</internalNodes>
          <leafValues>
            -2. 2.</leafValues></_></weakClassifiers></_>
    <!-- stage 7 -->
    <_>
      <maxWeakCount>1</maxWeakCount>
      <stageThreshold>2.</stageThreshold>
      <weakClassifiers>
        <_>
          <internalNodes>
            0 -1 6 1073745921 -788529152 256 286261248 1 268435456
            2097152 -939524096</internalNodes>
          <leafValues>
            -2. 2.</leafValues></_></weakClassifiers></_>
    <!-- stage 8 -->
    <_>
      <maxWeakCount>1</maxWeakCount>
      <stageThreshold>2.</stageThreshold>
      <weakClassifiers>
        <_>
          <internalNodes>
            0 -1 12 805322952 1 0 1090519040 0 32770 1 -1065123840</internalNodes>
          <leafValues>
            -2. 2.</leafValues></_></weakClassifiers></_>
    <!-- stage 9 -->
    <_>
      <maxWeakCount>1</maxWeakCount>
      <stageThreshold>2.</stageThreshold>
      <weakClassifiers>
        <_>
          <internalNodes>
            0 -1 11 1 1074266112 16384 0 98434 -2147483648 12
            -1065351039</internalNodes>
          <leafValues>
            -2. 2.</leafValues></_></weakClassifiers></_>
    <!-- stage 10 -->
    <_>
      <maxWeakCount>1</maxWeakCount>
      <stageThreshold>2.</stageThreshold>
      <weakClassifiers>
        <_>
          <internalNodes>
            0 -1 13 8388617 16777216 0 268435456 138 150994944 0
            -670908416</internalNodes>
          <leafValues>
            -2. 2.</leafValues></_></weakClassifiers></_>
    <!-- stage 11 -->
    <_>
      <maxWeakCount>1</maxWeakCount>
      <stageThreshold>2.</stageThreshold>
      <weakClassifiers>
        <_>
          <internalNodes>
            0 -1 8 0 268435472 0 -2147483648 49156 0 134217730
            -234814976</internalNodes>
          <leafValues>
            -2. 2.</leafValues></_></weakClassifiers></_>
    <!-- stage 12 -->
    <_>
      <maxWeakCount>1</maxWeakCount>
      <stageThreshold>2.</stageThreshold>
      <weakClassifiers>
        <_>
          <internalNodes>
            0 -1 7 1073741861 0 -2147450864 -1845493760 -2139094910
            -2147483520 16777344 -2147483648</internalNodes>
          <leafValues>
            -2. 2.</leafValues></_></weakClassifiers></_>
    <!-- stage 13 -->
    <_>
      <maxWeakCount>1</maxWeakCount>
      <stageThreshold>2.</stageThreshold>
      <weakClassifiers>
        <_>
          <internalNodes>
            0 -1 4 -1073676160 -2129653760 16 0 -2147483520 268435456
            4096 -2071986176</internalNodes>
          <leafValues>
            -2. 2.</leafValues></_></weakClassifiers></_></stages>
  <features>
    <_>
      <rect>
        0 0 1 2</rect></_>
    <_>
      <rect>
        0 0 1 6</rect></_>
    <_>
      <rect>
        0 0 1 7</rect></_>
    <_>
      <rect>
        0 0 1 11</rect></_>
    <_>
      <rect>
        0 0 2 1</rect></_>
    <_>
      <rect>
        0 0 2 2</rect></_>
    <_>
      <rect>
        0 0 2 4</rect></_>
    <_>
      <rect>
        0 0 3 2</rect></_>
    <_>
      <rect>
        0 0 3 3</rect></_>
    <_>
      <rect>
        0 0 4 2</rect></_>
    <_>
      <rect>
        0 0 4 9</rect></_>
    <_>
      <rect>
        0 0 5 7</rect></_>
    <_>
      <rect>
        0 0 6 15</rect></_>
    <_>
      <rect>
        0 0 7 6</rect></_></features></cascade>
</opencv_storage>
