<?xml version="1.0"?>
<opencv_storage>
<cascade>
  <stageType>BOOST</stageType>
  <featureType>HAAR</featureType>
  <height>50</height>
  <width>50</width>
  <stageParams>
    <boostType>GAB</boostType>
    <minHitRate>9.9500000476837158e-01</minHitRate>
    <maxFalseAlarm>5.0000000000000000e-01</maxFalseAlarm>
    <weightTrimRate>9.4999999999999996e-01</weightTrimRate>
    <maxDepth>1</maxDepth>
    <maxWeakCount>100</maxWeakCount></stageParams>
  <featureParams>
    <maxCatCount>0</maxCatCount>
    <featSize>1</featSize>
    <mode>BASIC</mode></featureParams>
  <stageNum>14</stageNum>
  <stages>
    <!-- stage 0 -->
    <_>
      <maxWeakCount>5</maxWeakCount>
      <stageThreshold>-8.0762499570846558e-01</stageThreshold>
      <weakClassifiers>
        <_>
          <internalNodes>
            0 -1 73 -3.6632709088735282e-04</internalNodes>
          <leafValues>
            -7.9661017656326294e-01 6.0995852947235107e-01</leafValues></_>
        <_>
          <internalNodes>
            0 -1 14 9.3567743897438049e-02</internalNodes>
          <leafValues>
            -4.8464342951774597e-01 9.4596624374389648e-01</leafValues></_>
        <_>
          <internalNodes>
            0 -1 49 -1.4492121408693492e-04</internalNodes>
          <leafValues>
            -8.3843785524368286e-01 4.8593354225158691e-01</leafValues></_>
        <_>
          <internalNodes>
            0 -1 69 2.4411988852079958e-04</internalNodes>
          <leafValues>
            3.8424447178840637e-01 -9.5216345787048340e-01</leafValues></_>
        <_>
          <internalNodes>
            0 -1 16 3.7887278012931347e-03</internalNodes>
          <leafValues>
            -4.7874665260314941e-01 8.2315802574157715e-01</leafValues></_></weakClassifiers></_>
    <!-- stage 1 -->
    <_>
      <maxWeakCount>6</maxWeakCount>
      <stageThreshold>-3.9928832650184631e-01</stageThreshold>
      <weakClassifiers>
        <_>
          <internalNodes>
            0 -1 0 2.2391177713871002e-02</internalNodes>
          <leafValues>
            -3.3333334326744080e-01 8.5714286565780640e-01</leafValues></_>
        <_>
          <internalNodes>
            0 -1 8 7.3032436193898320e-04</internalNodes>
          <leafValues>
            -2.8103077411651611e-01 7.9122567176818848e-01</leafValues></_>
        <_>
          <internalNodes>
            0 -1 31 4.5850407332181931e-05</internalNodes>
          <leafValues>
            -3.1174856424331665e-01 7.6752227544784546e-01</leafValues></_>
        <_>
          <internalNodes>
            0 -1 19 -3.7544686347246170e-04</internalNodes>
          <leafValues>
            6.0616415739059448e-01 -4.6598449349403381e-01</leafValues></_>
        <_>
          <internalNodes>
            0 -1 35 1.2264119461178780e-02</internalNodes>
          <leafValues>
            -3.7418195605278015e-01 7.4034416675567627e-01</leafValues></_>
        <_>
          <internalNodes>
            0 -1 44 1.2594561849255115e-04</internalNodes>
          <leafValues>
            3.4905865788459778e-01 -8.9563399553298950e-01</leafValues></_></weakClassifiers></_>
    <!-- stage 2 -->
    <_>
      <maxWeakCount>6</maxWeakCount>
      <stageThreshold>-1.0399503707885742e+00</stageThreshold>
      <weakClassifiers>
        <_>
          <internalNodes>
            0 -1 82 -5.7237630244344473e-04</internalNodes>
          <leafValues>
            7.2571426630020142e-01 -2.1600000560283661e-01</leafValues></_>
        <_>
          <internalNodes>
            0 -1 4 -7.6021111453883350e-05</internalNodes>
          <leafValues>
            6.4191335439682007e-01 -3.4254321455955505e-01</leafValues></_>
        <_>
          <internalNodes>
            0 -1 70 8.0208512372337282e-05</internalNodes>
          <leafValues>
            -3.1152817606925964e-01 7.7111136913299561e-01</leafValues></_>
        <_>
          <internalNodes>
            0 -1 18 -5.1281740888953209e-04</internalNodes>
          <leafValues>
            6.6968137025833130e-01 -4.1695660352706909e-01</leafValues></_>
        <_>
          <internalNodes>
            0 -1 5 -4.2054092045873404e-04</internalNodes>
          <leafValues>
            6.2634891271591187e-01 -4.2672428488731384e-01</leafValues></_>
        <_>
          <internalNodes>
            0 -1 66 1.4112338249105960e-04</internalNodes>
          <leafValues>
            -3.7927123904228210e-01 6.7150312662124634e-01</leafValues></_></weakClassifiers></_>
    <!-- stage 3 -->
    <_>
      <maxWeakCount>7</maxWeakCount>
      <stageThreshold>-4.3298357725143433e-01</stageThreshold>
      <weakClassifiers>
        <_>
          <internalNodes>
            0 -1 22 -7.5268244836479425e-04</internalNodes>
          <leafValues>
            7.3809522390365601e-01 -1.8181818723678589e-01</leafValues></_>
        <_>
          <internalNodes>
            0 -1 36 2.5909726973623037e-03</internalNodes>
          <leafValues>
            -3.4033450484275818e-01 7.7436691522598267e-01</leafValues></_>
        <_>
          <internalNodes>
            0 -1 90 -7.7438780863303691e-06</internalNodes>
          <leafValues>
            -5.6095719337463379e-01 4.7463324666023254e-01</leafValues></_>
        <_>
          <internalNodes>
            0 -1 55 -9.8948192317038774e-05</internalNodes>
          <leafValues>
            4.7709646821022034e-01 -5.7867950201034546e-01</leafValues></_>
        <_>
          <internalNodes>
            0 -1 59 6.0358648624969646e-05</internalNodes>
          <leafValues>
            -4.7064810991287231e-01 6.0095483064651489e-01</leafValues></_>
        <_>
          <internalNodes>
            0 -1 77 -3.2083059977594530e-06</internalNodes>
          <leafValues>
            5.2971708774566650e-01 -5.4014372825622559e-01</leafValues></_>
        <_>
          <internalNodes>
            0 -1 60 -2.4072725864243694e-05</internalNodes>
          <leafValues>
            -9.4727283716201782e-01 2.8409376740455627e-01</leafValues></_></weakClassifiers></_>
    <!-- stage 4 -->
    <_>
      <maxWeakCount>6</maxWeakCount>
      <stageThreshold>-4.4314625859260559e-01</stageThreshold>
      <weakClassifiers>
        <_>
          <internalNodes>
            0 -1 85 -3.4487202356103808e-05</internalNodes>
          <leafValues>
            -7.8723406791687012e-01 5.4150199890136719e-01</leafValues></_>
        <_>
          <internalNodes>
            0 -1 27 2.5756176910363138e-05</internalNodes>
          <leafValues>
            -4.2916384339332581e-01 5.9394580125808716e-01</leafValues></_>
        <_>
          <internalNodes>
            0 -1 25 6.9625471951439977e-05</internalNodes>
          <leafValues>
            3.8838800787925720e-01 -6.5429031848907471e-01</leafValues></_>
        <_>
          <internalNodes>
            0 -1 68 -1.0563847172306851e-04</internalNodes>
          <leafValues>
            5.6715965270996094e-01 -4.2332699894905090e-01</leafValues></_>
        <_>
          <internalNodes>
            0 -1 41 2.2085214732214808e-04</internalNodes>
          <leafValues>
            2.7536866068840027e-01 -8.2748091220855713e-01</leafValues></_>
        <_>
          <internalNodes>
            0 -1 53 2.1436086390167475e-03</internalNodes>
          <leafValues>
            -4.3809598684310913e-01 5.5367982387542725e-01</leafValues></_></weakClassifiers></_>
    <!-- stage 5 -->
    <_>
      <maxWeakCount>7</maxWeakCount>
      <stageThreshold>-2.8444358706474304e-01</stageThreshold>
      <weakClassifiers>
        <_>
          <internalNodes>
            0 -1 1 3.5670623183250427e-02</internalNodes>
          <leafValues>
            -1.7482517659664154e-01 7.9617834091186523e-01</leafValues></_>
        <_>
          <internalNodes>
            0 -1 34 6.3100666739046574e-04</internalNodes>
          <leafValues>
            3.8371506333351135e-01 -7.8728812932968140e-01</leafValues></_>
        <_>
          <internalNodes>
            0 -1 10 6.8031402770429850e-04</internalNodes>
          <leafValues>
            -3.8428592681884766e-01 6.5081375837326050e-01</leafValues></_>
        <_>
          <internalNodes>
            0 -1 51 7.8455067705363035e-04</internalNodes>
          <leafValues>
            -3.8709622621536255e-01 6.4636516571044922e-01</leafValues></_>
        <_>
          <internalNodes>
            0 -1 75 -3.7605076795443892e-04</internalNodes>
          <leafValues>
            5.6952440738677979e-01 -5.3360515832901001e-01</leafValues></_>
        <_>
          <internalNodes>
            0 -1 81 5.6947239500004798e-05</internalNodes>
          <leafValues>
            3.6259117722511292e-01 -7.4130326509475708e-01</leafValues></_>
        <_>
          <internalNodes>
            0 -1 67 1.6188345034606755e-04</internalNodes>
          <leafValues>
            -4.9662885069847107e-01 5.8736932277679443e-01</leafValues></_></weakClassifiers></_>
    <!-- stage 6 -->
    <_>
      <maxWeakCount>7</maxWeakCount>
      <stageThreshold>-4.9996021389961243e-01</stageThreshold>
      <weakClassifiers>
        <_>
          <internalNodes>
            0 -1 48 6.4148465753532946e-05</internalNodes>
          <leafValues>
            5.0757575035095215e-01 -9.4444441795349121e-01</leafValues></_>
        <_>
          <internalNodes>
            0 -1 76 -6.2250906012195628e-06</internalNodes>
          <leafValues>
            4.9508062005043030e-01 -4.8745799064636230e-01</leafValues></_>
        <_>
          <internalNodes>
            0 -1 2 -3.3156581223011017e-02</internalNodes>
          <leafValues>
            9.5915722846984863e-01 -2.7172824740409851e-01</leafValues></_>
        <_>
          <internalNodes>
            0 -1 80 -3.4418111317791045e-04</internalNodes>
          <leafValues>
            6.1681848764419556e-01 -4.2820936441421509e-01</leafValues></_>
        <_>
          <internalNodes>
            0 -1 62 4.6426046174019575e-04</internalNodes>
          <leafValues>
            3.5849505662918091e-01 -7.7600431442260742e-01</leafValues></_>
        <_>
          <internalNodes>
            0 -1 15 3.4194295294582844e-03</internalNodes>
          <leafValues>
            -4.4614166021347046e-01 6.8772506713867188e-01</leafValues></_>
        <_>
          <internalNodes>
            0 -1 43 3.8398359902203083e-04</internalNodes>
          <leafValues>
            4.3032279610633850e-01 -7.1503233909606934e-01</leafValues></_></weakClassifiers></_>
    <!-- stage 7 -->
    <_>
      <maxWeakCount>6</maxWeakCount>
      <stageThreshold>-3.9025634527206421e-01</stageThreshold>
      <weakClassifiers>
        <_>
          <internalNodes>
            0 -1 9 -2.8634673071792349e-05</internalNodes>
          <leafValues>
            -6.8627452850341797e-01 5.4216867685317993e-01</leafValues></_>
        <_>
          <internalNodes>
            0 -1 65 6.8750313948839903e-04</internalNodes>
          <leafValues>
            -3.2704344391822815e-01 6.6715794801712036e-01</leafValues></_>
        <_>
          <internalNodes>
            0 -1 39 -6.2900985358282924e-04</internalNodes>
          <leafValues>
            5.1403164863586426e-01 -3.9826121926307678e-01</leafValues></_>
        <_>
          <internalNodes>
            0 -1 63 1.0807230137288570e-03</internalNodes>
          <leafValues>
            2.8713041543960571e-01 -8.2526397705078125e-01</leafValues></_>
        <_>
          <internalNodes>
            0 -1 24 3.7369778146967292e-04</internalNodes>
          <leafValues>
            2.8851237893104553e-01 -7.6055479049682617e-01</leafValues></_>
        <_>
          <internalNodes>
            0 -1 20 7.9745636321604252e-04</internalNodes>
          <leafValues>
            -4.4517362117767334e-01 5.6387305259704590e-01</leafValues></_></weakClassifiers></_>
    <!-- stage 8 -->
    <_>
      <maxWeakCount>7</maxWeakCount>
      <stageThreshold>-6.8648231029510498e-01</stageThreshold>
      <weakClassifiers>
        <_>
          <internalNodes>
            0 -1 17 9.6537178615108132e-04</internalNodes>
          <leafValues>
            5.2569168806076050e-01 -7.0212763547897339e-01</leafValues></_>
        <_>
          <internalNodes>
            0 -1 26 -3.6622301558963954e-04</internalNodes>
          <leafValues>
            -5.9903329610824585e-01 3.7179446220397949e-01</leafValues></_>
        <_>
          <internalNodes>
            0 -1 84 -5.8187542890664190e-05</internalNodes>
          <leafValues>
            4.6778163313865662e-01 -4.9011531472206116e-01</leafValues></_>
        <_>
          <internalNodes>
            0 -1 88 2.9913375328760594e-05</internalNodes>
          <leafValues>
            3.8399130105972290e-01 -6.5196001529693604e-01</leafValues></_>
        <_>
          <internalNodes>
            0 -1 12 8.4679899737238884e-04</internalNodes>
          <leafValues>
            -4.7403910756111145e-01 4.8077026009559631e-01</leafValues></_>
        <_>
          <internalNodes>
            0 -1 32 1.6457935271319002e-04</internalNodes>
          <leafValues>
            3.3349239826202393e-01 -6.1450707912445068e-01</leafValues></_>
        <_>
          <internalNodes>
            0 -1 79 -1.3450800906866789e-04</internalNodes>
          <leafValues>
            6.7760425806045532e-01 -3.6646997928619385e-01</leafValues></_></weakClassifiers></_>
    <!-- stage 9 -->
    <_>
      <maxWeakCount>6</maxWeakCount>
      <stageThreshold>-1.4648176729679108e-01</stageThreshold>
      <weakClassifiers>
        <_>
          <internalNodes>
            0 -1 87 -1.4759523037355393e-04</internalNodes>
          <leafValues>
            -5.0724637508392334e-01 5.8441555500030518e-01</leafValues></_>
        <_>
          <internalNodes>
            0 -1 29 -2.0570925698848441e-05</internalNodes>
          <leafValues>
            6.1238038539886475e-01 -3.8427984714508057e-01</leafValues></_>
        <_>
          <internalNodes>
            0 -1 23 -4.6449575165752321e-05</internalNodes>
          <leafValues>
            -7.8403037786483765e-01 3.4406921267509460e-01</leafValues></_>
        <_>
          <internalNodes>
            0 -1 54 5.0745893269777298e-02</internalNodes>
          <leafValues>
            -3.8219511508941650e-01 7.5724828243255615e-01</leafValues></_>
        <_>
          <internalNodes>
            0 -1 3 1.9225176656618714e-03</internalNodes>
          <leafValues>
            -4.5155254006385803e-01 6.0628867149353027e-01</leafValues></_>
        <_>
          <internalNodes>
            0 -1 45 -1.4413424651138484e-04</internalNodes>
          <leafValues>
            -7.8334093093872070e-01 3.6289790272712708e-01</leafValues></_></weakClassifiers></_>
    <!-- stage 10 -->
    <_>
      <maxWeakCount>5</maxWeakCount>
      <stageThreshold>-3.1301233172416687e-01</stageThreshold>
      <weakClassifiers>
        <_>
          <internalNodes>
            0 -1 86 1.1376033944543451e-04</internalNodes>
          <leafValues>
            6.3800907135009766e-01 -5.1898735761642456e-01</leafValues></_>
        <_>
          <internalNodes>
            0 -1 72 2.2966536926105618e-04</internalNodes>
          <leafValues>
            3.8785853981971741e-01 -6.9972890615463257e-01</leafValues></_>
        <_>
          <internalNodes>
            0 -1 7 -6.0044638812541962e-03</internalNodes>
          <leafValues>
            5.4032385349273682e-01 -5.1458686590194702e-01</leafValues></_>
        <_>
          <internalNodes>
            0 -1 30 4.0508434176445007e-03</internalNodes>
          <leafValues>
            -3.4830734133720398e-01 8.6429703235626221e-01</leafValues></_>
        <_>
          <internalNodes>
            0 -1 37 -1.1686981888487935e-03</internalNodes>
          <leafValues>
            7.0876836776733398e-01 -3.7390005588531494e-01</leafValues></_></weakClassifiers></_>
    <!-- stage 11 -->
    <_>
      <maxWeakCount>7</maxWeakCount>
      <stageThreshold>-2.9755869507789612e-01</stageThreshold>
      <weakClassifiers>
        <_>
          <internalNodes>
            0 -1 6 1.4120863852440380e-05</internalNodes>
          <leafValues>
            6.0377359390258789e-01 -3.1818181276321411e-01</leafValues></_>
        <_>
          <internalNodes>
            0 -1 21 5.5430224165320396e-05</internalNodes>
          <leafValues>
            -3.0276411771774292e-01 6.4577364921569824e-01</leafValues></_>
        <_>
          <internalNodes>
            0 -1 78 -4.1178886021953076e-05</internalNodes>
          <leafValues>
            5.9898889064788818e-01 -3.5038194060325623e-01</leafValues></_>
        <_>
          <internalNodes>
            0 -1 40 -3.7147924304008484e-02</internalNodes>
          <leafValues>
            8.0713707208633423e-01 -2.8782379627227783e-01</leafValues></_>
        <_>
          <internalNodes>
            0 -1 47 -1.5534496924374253e-04</internalNodes>
          <leafValues>
            5.4293149709701538e-01 -4.4550743699073792e-01</leafValues></_>
        <_>
          <internalNodes>
            0 -1 50 -2.0415071048773825e-05</internalNodes>
          <leafValues>
            -7.4520939588546753e-01 3.1523656845092773e-01</leafValues></_>
        <_>
          <internalNodes>
            0 -1 46 1.1730367259588093e-04</internalNodes>
          <leafValues>
            2.3419015109539032e-01 -8.4594595432281494e-01</leafValues></_></weakClassifiers></_>
    <!-- stage 12 -->
    <_>
      <maxWeakCount>7</maxWeakCount>
      <stageThreshold>-4.1079545021057129e-01</stageThreshold>
      <weakClassifiers>
        <_>
          <internalNodes>
            0 -1 56 -1.0579643458186183e-05</internalNodes>
          <leafValues>
            7.3584908246994019e-01 -1.2056737393140793e-01</leafValues></_>
        <_>
          <internalNodes>
            0 -1 74 -1.3396165741141886e-05</internalNodes>
          <leafValues>
            6.4757168292999268e-01 -2.8967198729515076e-01</leafValues></_>
        <_>
          <internalNodes>
            0 -1 13 2.5856785476207733e-02</internalNodes>
          <leafValues>
            -2.6822885870933533e-01 7.9285496473312378e-01</leafValues></_>
        <_>
          <internalNodes>
            0 -1 52 1.4870318584144115e-02</internalNodes>
          <leafValues>
            -3.4309378266334534e-01 7.7023297548294067e-01</leafValues></_>
        <_>
          <internalNodes>
            0 -1 61 -2.8001020382362185e-06</internalNodes>
          <leafValues>
            6.7802888154983521e-01 -3.4323540329933167e-01</leafValues></_>
        <_>
          <internalNodes>
            0 -1 89 3.2658472264301963e-06</internalNodes>
          <leafValues>
            4.4116696715354919e-01 -5.7270270586013794e-01</leafValues></_>
        <_>
          <internalNodes>
            0 -1 58 -2.0149939227849245e-03</internalNodes>
          <leafValues>
            5.3846764564514160e-01 -4.4303849339485168e-01</leafValues></_></weakClassifiers></_>
    <!-- stage 13 -->
    <_>
      <maxWeakCount>9</maxWeakCount>
      <stageThreshold>-6.0581803321838379e-01</stageThreshold>
      <weakClassifiers>
        <_>
          <internalNodes>
            0 -1 42 6.4124891650862992e-05</internalNodes>
          <leafValues>
            5.1372551918029785e-01 -6.8888890743255615e-01</leafValues></_>
        <_>
          <internalNodes>
            0 -1 38 9.6672878134995699e-04</internalNodes>
          <leafValues>
            -3.9315831661224365e-01 6.7566436529159546e-01</leafValues></_>
        <_>
          <internalNodes>
            0 -1 57 -1.8716119229793549e-02</internalNodes>
          <leafValues>
            8.4270048141479492e-01 -2.4999396502971649e-01</leafValues></_>
        <_>
          <internalNodes>
            0 -1 71 1.6367610078305006e-03</internalNodes>
          <leafValues>
            -3.1128895282745361e-01 6.6907566785812378e-01</leafValues></_>
        <_>
          <internalNodes>
            0 -1 83 2.6541874831309542e-05</internalNodes>
          <leafValues>
            3.4158065915107727e-01 -7.1491754055023193e-01</leafValues></_>
        <_>
          <internalNodes>
            0 -1 33 3.5757542354986072e-04</internalNodes>
          <leafValues>
            -3.7673777341842651e-01 6.0538512468338013e-01</leafValues></_>
        <_>
          <internalNodes>
            0 -1 28 -5.1450822502374649e-04</internalNodes>
          <leafValues>
            6.7050236463546753e-01 -3.8030037283897400e-01</leafValues></_>
        <_>
          <internalNodes>
            0 -1 11 -5.4524112783838063e-05</internalNodes>
          <leafValues>
            6.1481094360351562e-01 -3.5061833262443542e-01</leafValues></_>
        <_>
          <internalNodes>
            0 -1 64 3.2162672141566873e-04</internalNodes>
          <leafValues>
            -4.0748393535614014e-01 6.0097348690032959e-01</leafValues></_></weakClassifiers></_></stages>
  <features>
    <_>
      <rects>
        <_>
          0 2 24 27 -1.</_>
        <_>
          12 2 12 27 2.</_></rects>
      <tilted>0</tilted></_>
    <_>
      <rects>
        <_>
          0 4 22 27 -1.</_>
        <_>
          11 4 11 27 2.</_></rects>
      <tilted>0</tilted></_>
    <_>
      <rects>
        <_>
          0 5 49 21 -1.</_>
        <_>
          0 12 49 7 3.</_></rects>
      <tilted>0</tilted></_>
    <_>
      <rects>
        <_>
          0 12 16 2 -1.</_>
        <_>
          8 12 8 2 2.</_></rects>
      <tilted>0</tilted></_>
    <_>
      <rects>
        <_>
          0 19 3 15 -1.</_>
        <_>
          1 19 1 15 3.</_></rects>
      <tilted>0</tilted></_>
    <_>
      <rects>
        <_>
          0 26 2 12 -1.</_>
        <_>
          0 32 2 6 2.</_></rects>
      <tilted>0</tilted></_>
    <_>
      <rects>
        <_>
          0 28 2 14 -1.</_>
        <_>
          0 28 1 7 2.</_>
        <_>
          1 35 1 7 2.</_></rects>
      <tilted>0</tilted></_>
    <_>
      <rects>
        <_>
          0 28 28 12 -1.</_>
        <_>
          0 34 28 6 2.</_></rects>
      <tilted>0</tilted></_>
    <_>
      <rects>
        <_>
          0 29 10 3 -1.</_>
        <_>
          5 29 5 3 2.</_></rects>
      <tilted>0</tilted></_>
    <_>
      <rects>
        <_>
          0 32 2 2 -1.</_>
        <_>
          0 32 1 1 2.</_>
        <_>
          1 33 1 1 2.</_></rects>
      <tilted>0</tilted></_>
    <_>
      <rects>
        <_>
          1 9 12 2 -1.</_>
        <_>
          7 9 6 2 2.</_></rects>
      <tilted>0</tilted></_>
    <_>
      <rects>
        <_>
          1 42 12 2 -1.</_>
        <_>
          1 42 6 1 2.</_>
        <_>
          7 43 6 1 2.</_></rects>
      <tilted>0</tilted></_>
    <_>
      <rects>
        <_>
          2 0 6 19 -1.</_>
        <_>
          5 0 3 19 2.</_></rects>
      <tilted>0</tilted></_>
    <_>
      <rects>
        <_>
          2 10 32 21 -1.</_>
        <_>
          2 17 32 7 3.</_></rects>
      <tilted>0</tilted></_>
    <_>
      <rects>
        <_>
          2 10 45 39 -1.</_>
        <_>
          2 23 45 13 3.</_></rects>
      <tilted>0</tilted></_>
    <_>
      <rects>
        <_>
          3 31 10 16 -1.</_>
        <_>
          8 31 5 16 2.</_></rects>
      <tilted>0</tilted></_>
    <_>
      <rects>
        <_>
          6 0 29 6 -1.</_>
        <_>
          6 3 29 3 2.</_></rects>
      <tilted>0</tilted></_>
    <_>
      <rects>
        <_>
          7 1 3 45 -1.</_>
        <_>
          8 1 1 45 3.</_></rects>
      <tilted>0</tilted></_>
    <_>
      <rects>
        <_>
          7 43 14 6 -1.</_>
        <_>
          7 43 7 3 2.</_>
        <_>
          14 46 7 3 2.</_></rects>
      <tilted>0</tilted></_>
    <_>
      <rects>
        <_>
          7 45 36 4 -1.</_>
        <_>
          19 45 12 4 3.</_></rects>
      <tilted>0</tilted></_>
    <_>
      <rects>
        <_>
          8 20 14 4 -1.</_>
        <_>
          8 22 14 2 2.</_></rects>
      <tilted>0</tilted></_>
    <_>
      <rects>
        <_>
          8 27 4 1 -1.</_>
        <_>
          10 27 2 1 2.</_></rects>
      <tilted>0</tilted></_>
    <_>
      <rects>
        <_>
          8 44 19 6 -1.</_>
        <_>
          8 47 19 3 2.</_></rects>
      <tilted>0</tilted></_>
    <_>
      <rects>
        <_>
          9 18 3 1 -1.</_>
        <_>
          10 18 1 1 3.</_></rects>
      <tilted>0</tilted></_>
    <_>
      <rects>
        <_>
          9 32 18 3 -1.</_>
        <_>
          9 33 18 1 3.</_></rects>
      <tilted>0</tilted></_>
    <_>
      <rects>
        <_>
          9 33 3 3 -1.</_>
        <_>
          9 34 3 1 3.</_></rects>
      <tilted>0</tilted></_>
    <_>
      <rects>
        <_>
          9 43 39 3 -1.</_>
        <_>
          9 44 39 1 3.</_></rects>
      <tilted>0</tilted></_>
    <_>
      <rects>
        <_>
          10 8 4 1 -1.</_>
        <_>
          12 8 2 1 2.</_></rects>
      <tilted>0</tilted></_>
    <_>
      <rects>
        <_>
          10 17 12 3 -1.</_>
        <_>
          14 17 4 3 3.</_></rects>
      <tilted>0</tilted></_>
    <_>
      <rects>
        <_>
          10 32 3 2 -1.</_>
        <_>
          10 33 3 1 2.</_></rects>
      <tilted>0</tilted></_>
    <_>
      <rects>
        <_>
          10 43 12 5 -1.</_>
        <_>
          16 43 6 5 2.</_></rects>
      <tilted>0</tilted></_>
    <_>
      <rects>
        <_>
          11 6 4 1 -1.</_>
        <_>
          13 6 2 1 2.</_></rects>
      <tilted>0</tilted></_>
    <_>
      <rects>
        <_>
          11 7 3 34 -1.</_>
        <_>
          12 7 1 34 3.</_></rects>
      <tilted>0</tilted></_>
    <_>
      <rects>
        <_>
          11 23 4 6 -1.</_>
        <_>
          13 23 2 6 2.</_></rects>
      <tilted>0</tilted></_>
    <_>
      <rects>
        <_>
          12 16 3 32 -1.</_>
        <_>
          13 16 1 32 3.</_></rects>
      <tilted>0</tilted></_>
    <_>
      <rects>
        <_>
          12 27 33 15 -1.</_>
        <_>
          23 27 11 15 3.</_></rects>
      <tilted>0</tilted></_>
    <_>
      <rects>
        <_>
          13 10 14 5 -1.</_>
        <_>
          20 10 7 5 2.</_></rects>
      <tilted>0</tilted></_>
    <_>
      <rects>
        <_>
          13 43 12 4 -1.</_>
        <_>
          19 43 6 4 2.</_></rects>
      <tilted>0</tilted></_>
    <_>
      <rects>
        <_>
          14 36 6 11 -1.</_>
        <_>
          17 36 3 11 2.</_></rects>
      <tilted>0</tilted></_>
    <_>
      <rects>
        <_>
          15 41 4 8 -1.</_>
        <_>
          15 45 4 4 2.</_></rects>
      <tilted>0</tilted></_>
    <_>
      <rects>
        <_>
          16 4 17 33 -1.</_>
        <_>
          16 15 17 11 3.</_></rects>
      <tilted>0</tilted></_>
    <_>
      <rects>
        <_>
          16 47 6 1 -1.</_>
        <_>
          18 47 2 1 3.</_></rects>
      <tilted>0</tilted></_>
    <_>
      <rects>
        <_>
          17 39 1 3 -1.</_>
        <_>
          17 40 1 1 3.</_></rects>
      <tilted>0</tilted></_>
    <_>
      <rects>
        <_>
          18 0 3 38 -1.</_>
        <_>
          19 0 1 38 3.</_></rects>
      <tilted>0</tilted></_>
    <_>
      <rects>
        <_>
          18 8 2 6 -1.</_>
        <_>
          18 8 1 3 2.</_>
        <_>
          19 11 1 3 2.</_></rects>
      <tilted>0</tilted></_>
    <_>
      <rects>
        <_>
          18 8 3 9 -1.</_>
        <_>
          19 8 1 9 3.</_></rects>
      <tilted>0</tilted></_>
    <_>
      <rects>
        <_>
          18 39 3 5 -1.</_>
        <_>
          19 39 1 5 3.</_></rects>
      <tilted>0</tilted></_>
    <_>
      <rects>
        <_>
          20 29 19 2 -1.</_>
        <_>
          20 30 19 1 2.</_></rects>
      <tilted>0</tilted></_>
    <_>
      <rects>
        <_>
          21 5 3 1 -1.</_>
        <_>
          22 5 1 1 3.</_></rects>
      <tilted>0</tilted></_>
    <_>
      <rects>
        <_>
          21 33 3 8 -1.</_>
        <_>
          22 33 1 8 3.</_></rects>
      <tilted>0</tilted></_>
    <_>
      <rects>
        <_>
          21 37 3 1 -1.</_>
        <_>
          22 37 1 1 3.</_></rects>
      <tilted>0</tilted></_>
    <_>
      <rects>
        <_>
          21 43 10 5 -1.</_>
        <_>
          26 43 5 5 2.</_></rects>
      <tilted>0</tilted></_>
    <_>
      <rects>
        <_>
          22 1 21 18 -1.</_>
        <_>
          22 7 21 6 3.</_></rects>
      <tilted>0</tilted></_>
    <_>
      <rects>
        <_>
          22 8 10 12 -1.</_>
        <_>
          22 12 10 4 3.</_></rects>
      <tilted>0</tilted></_>
    <_>
      <rects>
        <_>
          22 11 28 30 -1.</_>
        <_>
          22 21 28 10 3.</_></rects>
      <tilted>0</tilted></_>
    <_>
      <rects>
        <_>
          22 33 3 10 -1.</_>
        <_>
          22 38 3 5 2.</_></rects>
      <tilted>0</tilted></_>
    <_>
      <rects>
        <_>
          22 47 1 2 -1.</_>
        <_>
          22 48 1 1 2.</_></rects>
      <tilted>0</tilted></_>
    <_>
      <rects>
        <_>
          23 2 24 8 -1.</_>
        <_>
          35 2 12 8 2.</_></rects>
      <tilted>0</tilted></_>
    <_>
      <rects>
        <_>
          23 36 18 6 -1.</_>
        <_>
          23 39 18 3 2.</_></rects>
      <tilted>0</tilted></_>
    <_>
      <rects>
        <_>
          24 42 4 6 -1.</_>
        <_>
          24 44 4 2 3.</_></rects>
      <tilted>0</tilted></_>
    <_>
      <rects>
        <_>
          24 48 2 2 -1.</_>
        <_>
          24 48 1 1 2.</_>
        <_>
          25 49 1 1 2.</_></rects>
      <tilted>0</tilted></_>
    <_>
      <rects>
        <_>
          25 7 1 2 -1.</_>
        <_>
          25 8 1 1 2.</_></rects>
      <tilted>0</tilted></_>
    <_>
      <rects>
        <_>
          25 36 23 3 -1.</_>
        <_>
          25 37 23 1 3.</_></rects>
      <tilted>0</tilted></_>
    <_>
      <rects>
        <_>
          26 42 24 3 -1.</_>
        <_>
          26 43 24 1 3.</_></rects>
      <tilted>0</tilted></_>
    <_>
      <rects>
        <_>
          30 1 9 11 -1.</_>
        <_>
          33 1 3 11 3.</_></rects>
      <tilted>0</tilted></_>
    <_>
      <rects>
        <_>
          31 3 2 15 -1.</_>
        <_>
          31 8 2 5 3.</_></rects>
      <tilted>0</tilted></_>
    <_>
      <rects>
        <_>
          31 44 10 4 -1.</_>
        <_>
          31 44 5 2 2.</_>
        <_>
          36 46 5 2 2.</_></rects>
      <tilted>0</tilted></_>
    <_>
      <rects>
        <_>
          32 11 17 2 -1.</_>
        <_>
          32 12 17 1 2.</_></rects>
      <tilted>0</tilted></_>
    <_>
      <rects>
        <_>
          35 1 10 1 -1.</_>
        <_>
          40 1 5 1 2.</_></rects>
      <tilted>0</tilted></_>
    <_>
      <rects>
        <_>
          35 7 3 6 -1.</_>
        <_>
          36 7 1 6 3.</_></rects>
      <tilted>0</tilted></_>
    <_>
      <rects>
        <_>
          36 0 2 4 -1.</_>
        <_>
          36 2 2 2 2.</_></rects>
      <tilted>0</tilted></_>
    <_>
      <rects>
        <_>
          36 12 12 9 -1.</_>
        <_>
          40 12 4 9 3.</_></rects>
      <tilted>0</tilted></_>
    <_>
      <rects>
        <_>
          38 2 3 12 -1.</_>
        <_>
          39 2 1 12 3.</_></rects>
      <tilted>0</tilted></_>
    <_>
      <rects>
        <_>
          38 26 3 14 -1.</_>
        <_>
          39 26 1 14 3.</_></rects>
      <tilted>0</tilted></_>
    <_>
      <rects>
        <_>
          39 8 2 2 -1.</_>
        <_>
          40 8 1 2 2.</_></rects>
      <tilted>0</tilted></_>
    <_>
      <rects>
        <_>
          39 8 10 5 -1.</_>
        <_>
          44 8 5 5 2.</_></rects>
      <tilted>0</tilted></_>
    <_>
      <rects>
        <_>
          39 32 2 4 -1.</_>
        <_>
          39 34 2 2 2.</_></rects>
      <tilted>0</tilted></_>
    <_>
      <rects>
        <_>
          39 36 3 2 -1.</_>
        <_>
          39 37 3 1 2.</_></rects>
      <tilted>0</tilted></_>
    <_>
      <rects>
        <_>
          42 37 5 2 -1.</_>
        <_>
          42 38 5 1 2.</_></rects>
      <tilted>0</tilted></_>
    <_>
      <rects>
        <_>
          42 43 4 3 -1.</_>
        <_>
          44 43 2 3 2.</_></rects>
      <tilted>0</tilted></_>
    <_>
      <rects>
        <_>
          43 15 6 3 -1.</_>
        <_>
          46 15 3 3 2.</_></rects>
      <tilted>0</tilted></_>
    <_>
      <rects>
        <_>
          43 35 2 3 -1.</_>
        <_>
          43 36 2 1 3.</_></rects>
      <tilted>0</tilted></_>
    <_>
      <rects>
        <_>
          45 1 4 29 -1.</_>
        <_>
          47 1 2 29 2.</_></rects>
      <tilted>0</tilted></_>
    <_>
      <rects>
        <_>
          46 9 3 1 -1.</_>
        <_>
          47 9 1 1 3.</_></rects>
      <tilted>0</tilted></_>
    <_>
      <rects>
        <_>
          47 0 3 31 -1.</_>
        <_>
          48 0 1 31 3.</_></rects>
      <tilted>0</tilted></_>
    <_>
      <rects>
        <_>
          47 46 1 3 -1.</_>
        <_>
          47 47 1 1 3.</_></rects>
      <tilted>0</tilted></_>
    <_>
      <rects>
        <_>
          48 7 2 34 -1.</_>
        <_>
          49 7 1 34 2.</_></rects>
      <tilted>0</tilted></_>
    <_>
      <rects>
        <_>
          48 30 2 16 -1.</_>
        <_>
          48 30 1 8 2.</_>
        <_>
          49 38 1 8 2.</_></rects>
      <tilted>0</tilted></_>
    <_>
      <rects>
        <_>
          48 31 2 12 -1.</_>
        <_>
          48 31 1 6 2.</_>
        <_>
          49 37 1 6 2.</_></rects>
      <tilted>0</tilted></_>
    <_>
      <rects>
        <_>
          48 42 2 4 -1.</_>
        <_>
          49 42 1 4 2.</_></rects>
      <tilted>0</tilted></_>
    <_>
      <rects>
        <_>
          48 49 2 1 -1.</_>
        <_>
          49 49 1 1 2.</_></rects>
      <tilted>0</tilted></_></features></cascade>
</opencv_storage>
